{
    "data_block_size": 8,
    "grid_width": 512,
    "grid_height": 512,
    "grid_depth": 512,
    "atlas_width": 1674,
    "atlas_height": 801,
    "atlas_depth": 9,
    "num_slices": 9,
    "slice_depth": 1,
    "atlas_blocks_x": 186,
    "atlas_blocks_y": 89,
    "atlas_blocks_z": 1,
    "min_x": -2.0,
    "min_y": -2.0,
    "min_z": -2.0,
    "worldspace_T_opengl": [
        [-1.0, 0.0, 0.0, 0.0],
        [0.0, 0.0, 1.0, 0.0],
        [0.0, 1.0, 0.0, 0.0],
        [0.0, 0.0, 0.0, 1.0]
    ],
    "0_weights": [
        [-0.42536836862564087, -0.023521190509200096, 0.3316369354724884, 0.011373225599527359, -0.023110028356313705, 0.17342130839824677, -0.06006370857357979, 0.04012634605169296, -0.5940548777580261, 0.5599109530448914, -0.27243468165397644, 1.3397008180618286, -0.7680110931396484, -0.26069173216819763, -0.24733176827430725, 0.7609415054321289],
        [0.2936058044433594, 0.7439455986022949, 0.7873311638832092, 1.245361566543579, 0.7093528509140015, 0.7646445631980896, -1.1676479578018188, 0.6546386480331421, 0.3420851528644562, 0.49650517106056213, 0.03100578300654888, 0.11738185584545135, 1.6343852281570435, -0.0748864933848381, -0.22379562258720398, 1.399425983428955],
        [-0.15453921258449554, 0.9763596057891846, -0.6281670331954956, 1.3705908060073853, -1.2642033100128174, 2.5177500247955322, -2.5522520542144775, 0.44267866015434265, -0.7740865349769592, -0.4583711624145508, 0.32138076424598694, 1.8810157775878906, -1.199506402015686, 0.16245414316654205, -0.1960611492395401, -0.6828427314758301],
        [0.5072668194770813, -0.49741387367248535, -1.250887155532837, 0.4254316985607147, 0.026581162586808205, 0.8896703720092773, -0.49363166093826294, -0.6965122818946838, 0.2813463509082794, 0.5494289398193359, -0.7756129503250122, -0.964695930480957, 0.2502245306968689, 0.1330750733613968, -0.02833486720919609, 0.0033656663727015257],
        [-1.1042274236679077, 0.17710286378860474, 0.3945483863353729, -0.07553546875715256, -0.6439040303230286, 0.22489582002162933, 0.5408192873001099, 0.2621438801288605, -0.7227500677108765, -0.015394008718430996, 0.7012423276901245, 0.7262538075447083, 0.8139665722846985, -0.27555423974990845, -0.36897122859954834, -2.1669490337371826],
        [0.7612075805664062, -1.0957406759262085, 0.8690608143806458, 0.9092719554901123, -0.8629462122917175, -0.9187517762184143, 0.35574719309806824, 0.6708865165710449, -0.10928697884082794, -1.5605583190917969, -0.6616700887680054, 0.8596828579902649, -0.5587520003318787, -0.30169960856437683, -0.38281720876693726, -0.7196115851402283],
        [-0.010937705636024475, 0.41418027877807617, 0.6688090562820435, -1.372753381729126, 0.40282025933265686, 0.20464448630809784, -0.02104705013334751, 0.9728583693504333, -1.4388688802719116, 0.014454959891736507, 0.5056387186050415, 0.7128178477287292, -0.3989126980304718, 0.2307569682598114, 0.017773889005184174, -0.23731711506843567],
        [0.5908505320549011, 0.500284731388092, 0.13077186048030853, 0.17803631722927094, -0.2553739845752716, 0.15587303042411804, -0.044615138322114944, 0.431090772151947, -0.04510509967803955, 0.09810952842235565, 0.2407243698835373, -0.4220130443572998, -0.2216283679008484, 0.2852988541126251, 0.20857849717140198, -0.33224478363990784],
        [0.025476140901446342, -0.06491696834564209, 0.4825506806373596, -0.583017885684967, -0.4220271706581116, -0.6264310479164124, 0.3958609104156494, -0.5422515273094177, 0.050600044429302216, -0.18672271072864532, -0.22467099130153656, -0.430158406496048, 0.09129901975393295, -0.19124218821525574, -0.20848916471004486, -0.2177179753780365],
        [0.005662483628839254, 0.2195395976305008, -0.12348803132772446, -0.04543258249759674, 0.14018656313419342, -0.12619347870349884, -0.1479846090078354, 0.49489790201187134, 0.22181585431098938, -0.14630068838596344, -0.0031362685840576887, 0.05168010666966438, 0.19649089872837067, 0.34674426913261414, -0.2578906714916229, -0.3143256604671478],
        [-0.15032394230365753, 0.286570280790329, -0.2401280254125595, -0.20075520873069763, 0.09987838566303253, 0.07185408473014832, -0.008418886922299862, -0.25799116492271423, -0.1444971263408661, -0.14840860664844513, 0.00906809139996767, 0.1537628471851349, -0.049265094101428986, -0.1744988113641739, -0.35556307435035706, -0.08148609101772308],
        [-0.1656590849161148, 0.5016348361968994, -0.05441601201891899, -0.5367259979248047, -0.13758502900600433, -0.23089852929115295, 0.14140507578849792, -0.39789924025535583, -0.16564591228961945, 0.29844361543655396, 0.3513173758983612, -0.09044569730758667, 0.34355324506759644, 0.1641533225774765, -0.23533540964126587, -0.21217204630374908],
        [-0.37391147017478943, -0.03187849745154381, -0.16850581765174866, 0.06203801929950714, -0.5408617854118347, 0.19769184291362762, 0.17814132571220398, 0.42075127363204956, -0.22573751211166382, 0.02533017285168171, 0.15615545213222504, -0.020177431404590607, 0.011436542496085167, 0.2586272954940796, 0.38172122836112976, 0.24393349885940552],
        [-0.18221236765384674, 0.11981011182069778, 0.039904169738292694, 0.23695413768291473, 0.1158173680305481, -0.3396779000759125, -0.04619353637099266, -0.28974080085754395, 0.24364428222179413, 0.03914354369044304, 0.001253578462637961, 0.30676889419555664, 0.6577469706535339, -0.16681963205337524, -0.068030945956707, -0.49920615553855896],
        [0.08940356224775314, -0.3142869472503662, -0.48105230927467346, -0.46273475885391235, -0.0747353732585907, -0.395397424697876, 0.3296108841896057, 0.09942998737096786, 0.05615882948040962, -0.05727611854672432, 0.060009460896253586, 0.28203707933425903, -0.18332026898860931, 0.0980454534292221, 0.31671369075775146, -0.09414389729499817],
        [0.24035657942295074, 0.02505352348089218, 0.31964609026908875, 0.4569256901741028, -0.15917769074440002, 0.16563990712165833, -0.22498297691345215, -0.09353860467672348, -0.16411861777305603, 0.18237100541591644, -0.1902466118335724, -0.03665358945727348, 0.12837089598178864, 0.514681339263916, -0.2608264982700348, -0.12963728606700897],
        [-0.12673652172088623, -0.30157482624053955, 0.12529109418392181, 0.040453486144542694, -0.05139220505952835, 0.2991708219051361, -0.3810727596282959, 0.19437368214130402, 0.2479454129934311, -0.07569631189107895, -0.17042015492916107, -0.058593377470970154, -0.34757861495018005, 0.046122632920742035, 0.046344392001628876, -0.3479986786842346],
        [-0.03266606479883194, 0.2435867041349411, -0.11542364954948425, 0.13110530376434326, -0.21241024136543274, 0.188274085521698, -0.19030235707759857, -0.07934758067131042, 0.03840694576501846, -0.02802281640470028, 0.003288127714768052, -0.0594080425798893, -0.06486137211322784, 0.1742863953113556, -0.2846420109272003, -0.24558435380458832],
        [0.09422196447849274, -0.41700032353401184, -0.43848419189453125, 0.0846957266330719, 0.04869117587804794, 0.1619659960269928, -0.21415507793426514, -0.008697881363332272, 0.01409669779241085, 0.05269106850028038, 0.014163271524012089, -0.004240039736032486, 0.20328831672668457, -0.2700374722480774, 0.0021262457594275475, -0.015752209350466728],
        [-0.061334673315286636, -0.0877007320523262, 0.18977956473827362, 0.01062356773763895, 0.13826145231723785, -0.024909205734729767, -0.013934648595750332, 0.017458902671933174, 0.09829982370138168, -0.07093445956707001, -0.13335388898849487, 0.00907889474183321, 0.0323980376124382, -0.11772628873586655, 0.09579107910394669, 0.1428171992301941],
        [-0.08795827627182007, -0.035567380487918854, 0.07950575649738312, -0.02530062012374401, -0.07577479630708694, -0.019001923501491547, 0.025064311921596527, 0.0034193946048617363, 0.05457240343093872, -0.06913503259420395, -0.059449248015880585, -0.014672377146780491, -0.03653622046113014, -0.20026937127113342, -0.08130456507205963, -0.019161146134138107],
        [0.008547639474272728, -0.013512475416064262, -0.13061487674713135, -0.025258371606469154, -0.14234553277492523, -0.09389638155698776, 0.20584242045879364, -0.1007562056183815, 0.03510154411196709, 0.02674838900566101, -0.15709862112998962, 0.04608423262834549, -0.04039272665977478, -0.30374109745025635, -0.016964547336101532, -0.08394743502140045],
        [-0.07407191395759583, 0.3374916613101959, -0.46812930703163147, -0.21697384119033813, 0.054392196238040924, -0.10201247036457062, 0.1391846239566803, -0.22666184604167938, 0.41776612401008606, 0.5994642972946167, 0.20321127772331238, -0.4241180717945099, -0.02333962358534336, -0.4352395236492157, -0.394150048494339, 0.24712640047073364],
        [0.2579279839992523, 0.06915595382452011, 0.28973454236984253, -0.03831559792160988, -0.002479167655110359, -0.37158066034317017, -0.2791356146335602, 0.20568029582500458, 0.31130948662757874, -0.0809236466884613, 0.3238995671272278, -0.4115043878555298, -0.24708977341651917, -0.23448067903518677, -0.4175424575805664, 0.2592528760433197],
        [0.17041094601154327, -0.015095376409590244, -0.3744224011898041, -0.18420255184173584, -0.25612011551856995, -0.1609860360622406, 0.08527377992868423, -0.19917406141757965, 0.4167550504207611, 0.13118471205234528, 0.19201500713825226, -0.3169512152671814, 0.2747097909450531, -0.18074750900268555, -0.12926779687404633, -0.4229721426963806],
        [0.1459713578224182, 0.24954210221767426, 0.07972578704357147, 0.061192188411951065, 0.594709575176239, -0.3262993097305298, -0.5213479399681091, 0.13305512070655823, 0.14810045063495636, 0.17205564677715302, -0.020138194784522057, 0.1695019006729126, 0.4791816174983978, 0.06241901218891144, 0.31731364130973816, -0.0813300684094429],
        [0.29950761795043945, 0.09690570086240768, -0.12166871875524521, 0.12607035040855408, 0.4625195562839508, -0.06593232601881027, 0.1910760998725891, 0.30882778763771057, 0.1114618331193924, 0.5654078125953674, 0.21035867929458618, 0.0027200242038816214, -0.5510185360908508, -0.20718714594841003, -0.22392195463180542, 0.3808148205280304],
        [0.03399573266506195, 0.5444191098213196, -0.1612158715724945, 0.17819084227085114, 0.3042202591896057, -0.32301291823387146, 0.19074858725070953, -0.004503301810473204, 0.055282771587371826, 0.07584748417139053, -0.04681778699159622, -0.04966970160603523, -0.5914341807365417, -0.3677929937839508, -0.18011869490146637, -0.5316844582557678],
        [0.0218207947909832, 0.1428300440311432, -0.16151882708072662, -0.2013237029314041, -0.26424065232276917, -0.19868192076683044, 0.01236711349338293, -0.09369558840990067, 0.0859675407409668, 0.03229939192533493, -0.007411564234644175, 0.013132001273334026, 0.009029555134475231, 0.13831022381782532, 0.2841476500034332, -0.278838574886322],
        [0.015075849369168282, -0.011665775440633297, -0.03412352502346039, -0.05373983085155487, -0.0370611734688282, -0.14506997168064117, 0.33533188700675964, -0.15319359302520752, -0.2030942291021347, -0.12273982912302017, -0.1561650037765503, -0.012087848968803883, 0.4263002872467041, 0.26889052987098694, 0.4329701066017151, 0.05432792380452156],
        [0.0413510799407959, -0.11702396720647812, 0.275411993265152, -0.1216861754655838, -0.34221577644348145, -0.2402476966381073, 0.39834439754486084, -0.23188631236553192, 0.34127622842788696, -0.043748535215854645, -0.42156556248664856, 0.16671337187290192, -0.3070756196975708, 0.12360753118991852, -0.13212129473686218, -0.02618040330708027],
        [-0.0030392324551939964, -0.09230285882949829, -0.004462188109755516, 0.034825894981622696, -0.03520706295967102, 0.04291665181517601, -0.009201115928590298, -0.01797943003475666, -0.03732864558696747, 0.029886046424508095, 0.046170610934495926, 0.011459278874099255, -0.03180483356118202, 0.30161064863204956, -0.13440296053886414, 0.0913706123828888],
        [0.037351589649915695, -0.12008331716060638, 0.09880311042070389, -0.06232760101556778, -0.0026497032959014177, -0.027843372896313667, -0.06759005784988403, 0.049007613211870193, -0.09146511554718018, 0.011308104731142521, 0.04749234765768051, -0.018118733540177345, -0.03943231701850891, -0.21095909178256989, -0.02183210663497448, 0.08477549999952316],
        [-0.026116514578461647, 0.12450166046619415, 0.05591464787721634, -0.038814298808574677, -0.2113391011953354, -0.035892222076654434, 0.08972932398319244, -0.02692282572388649, -0.06005414202809334, -0.05006762966513634, -0.037414323538541794, 0.013189411722123623, -0.07589168846607208, -0.16610601544380188, -0.391519695520401, -0.08872620016336441]
    ],
    "1_weights": [
        [-0.4334692060947418, 0.13991673290729523, 0.1353197544813156, 0.5030404329299927, -0.15609818696975708, 0.8263387084007263, 0.755638599395752, -0.2407490462064743, 0.3018912374973297, -1.4892042875289917, -0.028892723843455315, -0.3966991901397705, -0.0016380349406972528, -0.27390924096107483, -1.5521498918533325, 0.4996638000011444],
        [-0.4512465298175812, -0.7277390956878662, 0.3369441032409668, 0.05719267576932907, 0.23110689222812653, 0.1872885823249817, 0.3792860209941864, -0.9566044211387634, -0.03002902865409851, 0.06069779023528099, 0.47867539525032043, 0.4037741422653198, 0.23877082765102386, 0.45935195684432983, 0.26287925243377686, 0.285563200712204],
        [0.10835769772529602, -0.22502769529819489, -0.49172571301460266, -0.1557203233242035, 0.3695962727069855, 0.30863338708877563, 0.5272770524024963, -0.7083947062492371, 0.09788098186254501, -0.4622706472873688, -0.9923660755157471, -0.14192895591259003, 1.1613298654556274, 0.6343001127243042, 0.6447771787643433, 0.8714715838432312],
        [0.10123997181653976, 0.4556189179420471, -0.7539257407188416, -0.114351786673069, -0.19346781075000763, 0.021547412499785423, -0.7580092549324036, 0.7788892984390259, -0.6280514001846313, -0.3959270417690277, -0.40088579058647156, -0.21268483996391296, -0.36670053005218506, -0.40610599517822266, -0.34414610266685486, -0.1874929666519165],
        [-0.3627019226551056, -0.06124074012041092, -0.2162865251302719, 0.06236622482538223, 0.15850161015987396, -0.3099963665008545, -0.19839447736740112, -0.3858948349952698, 0.0191354863345623, 0.24798336625099182, 0.29824525117874146, 0.367256760597229, -0.15275806188583374, 0.3573882579803467, -0.019335400313138962, 0.17116469144821167],
        [-0.7083240747451782, -0.14682985842227936, 0.44957464933395386, 0.4651380777359009, -0.0472525916993618, 0.21812725067138672, 0.8355333209037781, -1.0443408489227295, -0.04056121036410332, -0.16971014440059662, 0.3192502558231354, 0.1441274732351303, 0.4428956210613251, -0.12098562717437744, 0.018942851573228836, 0.5374387502670288],
        [0.1849076896905899, 0.14497855305671692, 0.3711724579334259, -0.057468533515930176, 0.2127300500869751, -0.17069126665592194, -0.021754391491413116, -0.1647612750530243, -0.1454746425151825, 0.5050472617149353, -0.04265804588794708, 0.16418403387069702, 0.5870063304901123, 0.394408255815506, 0.04141967371106148, 0.08161728829145432],
        [-0.2949807941913605, -0.2914508581161499, -0.31755465269088745, -0.3458772897720337, 0.13191713392734528, 0.14964304864406586, -0.47453683614730835, 0.27168574929237366, 0.12365410476922989, 0.6523709893226624, 0.21295855939388275, -0.43181395530700684, 0.4860115051269531, 0.24352611601352692, 0.03644021600484848, -0.33471980690956116],
        [0.6103490591049194, 0.5045865774154663, 0.39410200715065, 0.01798190362751484, 0.06444485485553741, -0.2665887475013733, -0.2903556227684021, -0.3233949840068817, -0.2143411487340927, -0.458792507648468, 0.14447835087776184, -0.15374454855918884, -0.24630647897720337, 0.14587293565273285, 0.3954317271709442, 0.38567468523979187],
        [-0.32534757256507874, -0.5345696210861206, -0.0697828158736229, -0.011229214258491993, 0.33755937218666077, 0.08539564162492752, 0.30692943930625916, -1.0366628170013428, -1.0956079959869385, -0.08084357529878616, -0.4566013216972351, -0.6103830933570862, 0.17245592176914215, 0.5137804746627808, 0.4460721015930176, 0.3518778085708618],
        [0.2224557250738144, 0.4079134464263916, 0.1772897094488144, -0.11914871633052826, 0.2295239120721817, -0.2784590721130371, 0.1720857322216034, -0.13696570694446564, 0.39534449577331543, 0.3148824870586395, 0.3139191269874573, -0.6757176518440247, 0.46503373980522156, 0.6736459136009216, 0.09409448504447937, -0.29800307750701904],
        [0.22261649370193481, -0.6296120882034302, 0.1667386293411255, -0.20100641250610352, 0.272816002368927, 0.2906688153743744, -0.20620225369930267, -0.18804529309272766, 0.8495781421661377, -0.2050863802433014, 0.9185022115707397, -0.3579266369342804, 1.5095340013504028, 0.5171371698379517, 0.3397902250289917, 0.12863709032535553],
        [-4.0764479637146, -0.6653885245323181, -0.3771412670612335, -0.15885935723781586, 0.08259841054677963, 0.20502136647701263, 0.18548275530338287, 0.0477629117667675, 0.15705204010009766, 0.7856392860412598, 0.7376843094825745, 0.11001947522163391, 0.23286142945289612, 0.13423745334148407, -0.05750611796975136, -0.41197851300239563],
        [-0.5934634208679199, 0.5432572364807129, 0.13725624978542328, 0.16990381479263306, -0.12227198481559753, 0.28685691952705383, -0.41831669211387634, -0.5916926860809326, 0.41923874616622925, 0.3881489336490631, -0.23750726878643036, 0.096832275390625, 0.31557777523994446, -0.5182160139083862, 0.326072096824646, -0.5802363753318787],
        [-0.0761343315243721, -0.29308921098709106, -0.5193219780921936, -0.17461898922920227, 0.13000881671905518, 0.17575795948505402, 0.5687938332557678, -0.3710227906703949, 0.4466700851917267, -0.6566264629364014, 0.13642221689224243, -0.1689971685409546, -0.6699597835540771, 0.053959157317876816, 0.4737997055053711, 0.14601382613182068],
        [0.616926372051239, 0.18554046750068665, 0.5086063146591187, 0.18138684332370758, -0.05590253695845604, -0.15367017686367035, -0.2902126908302307, -0.1018715649843216, -0.3485177457332611, 0.4937576651573181, 0.27189064025878906, -0.19780907034873962, -0.013774719089269638, -0.14306512475013733, 0.46058958768844604, 0.7044903039932251]
    ],
    "2_weights": [
        [0.3570134937763214, 0.6219568252563477, 0.8177123069763184],
        [0.3619714379310608, 0.3641815781593323, 0.3380759060382843],
        [0.27096137404441833, 0.2716408371925354, 0.293789803981781],
        [0.1344645768404007, -0.03843844309449196, -0.3379877507686615],
        [-0.3808446228504181, 0.13590987026691437, -0.3576383590698242],
        [0.31230735778808594, 0.4102070927619934, 0.5236784815788269],
        [0.3582763671875, 0.3637735843658447, 0.39243972301483154],
        [0.5409286022186279, 0.7275189757347107, 0.8883438110351562],
        [-0.5802035331726074, -0.62852942943573, -0.7184057831764221],
        [-1.19086754322052, -1.1962758302688599, -1.3271311521530151],
        [-0.3594457805156708, -0.34943392872810364, -0.3315388560295105],
        [-0.39926812052726746, 0.3406340777873993, -0.20632623136043549],
        [-0.44451704621315, -0.4753921329975128, -0.5445595979690552],
        [-0.13932491838932037, -0.3848695456981659, -0.2407703846693039],
        [-0.6694285273551941, -0.6604059338569641, -0.8155862092971802],
        [0.1815170794725418, 0.22961467504501343, 0.34018734097480774]
    ],
    "0_bias": [0.054809216409921646, 0.13061362504959106, -0.08528002351522446, 0.034255076199769974, 0.06077633798122406, -0.16204556822776794, 0.028002357110381126, -0.03275153785943985, 0.07051757723093033, 0.17313769459724426, 0.10750091075897217, -0.04906653240323067, -0.07997377216815948, -0.12678328156471252, -0.050427794456481934, -0.0713762640953064],
    "1_bias": [-0.1858436018228531, -0.11003649234771729, -0.06540803611278534, 0.10658430308103561, 0.1249103844165802, -0.21615399420261383, -0.21603357791900635, -0.21206001937389374, 0.426702082157135, -0.5551943778991699, 0.08789514005184174, -0.16535580158233643, -0.08896849304437637, 0.2869313359260559, -0.32640498876571655, -0.22941072285175323],
    "2_bias": [-0.14965547621250153, -0.25108078122138977, -0.39439520239830017],
    "triplane_voxel_size": 0.001953125,
    "triplane_resolution": 2048,
    "plane_width_0": 2048,
    "plane_height_0": 2048,
    "plane_width_1": 2048,
    "plane_height_1": 2048,
    "plane_width_2": 2048,
    "plane_height_2": 2048,
    "format": "png",
    "range_features": [-7.0, 7.0],
    "range_density": [-14.0, 14.0],
    "sparse_grid_resolution": 512,
    "sparse_grid_voxel_size": 0.0078125
}